digraph Tree {
node [shape=box, style="filled, rounded", color="black", fontname=helvetica] ;
edge [fontname=helvetica] ;
0 [label="LnguaPortuguesaeLiteraturaI90H <= 46.5\nentropy = 0.4075\nsamples = 5545\nvalue = [452, 5093]", fillcolor="#399de5e8"] ;
1 [label="ano_letivo__ano_matricula_periodo <= 2016.5\nentropy = 1.0\nsamples = 604\nvalue = [304, 300]", fillcolor="#e5813903"] ;
0 -> 1 [labeldistance=2.5, labelangle=45, headlabel="True"] ;
9 [label="LnguaPortuguesaeLiteraturaI90H <= 29.5\nentropy = 0.9643\nsamples = 406\nvalue = [248, 158]", fillcolor="#e581395d"] ;
1 -> 9 ;
11 [label="ano_letivo__ano_matricula_periodo <= 2015.5\nentropy = 0.817\nsamples = 276\nvalue = [206, 70]", fillcolor="#e58139a8"] ;
9 -> 11 ;
15 [label="percentual_frequencia <= 87.5\nentropy = 0.3712\nsamples = 84\nvalue = [78, 6]", fillcolor="#e58139eb"] ;
11 -> 15 ;
35 [label="entropy = 0.0\nsamples = 59\nvalue = [59, 0]", fillcolor="#e58139ff"] ;
15 -> 35 ;
36 [label="entropy = 0.795\nsamples = 25\nvalue = [19, 6]", fillcolor="#e58139ae"] ;
15 -> 36 ;
16 [label="MatemticaI120H <= 39.0\nentropy = 0.9183\nsamples = 192\nvalue = [128, 64]", fillcolor="#e581397f"] ;
11 -> 16 ;
29 [label="entropy = 0.8793\nsamples = 181\nvalue = [127, 54]", fillcolor="#e5813993"] ;
16 -> 29 ;
30 [label="entropy = 0.4395\nsamples = 11\nvalue = [1, 10]", fillcolor="#399de5e6"] ;
16 -> 30 ;
12 [label="cep <= 59585500.0\nentropy = 0.9077\nsamples = 130\nvalue = [42, 88]", fillcolor="#399de585"] ;
9 -> 12 ;
27 [label="MatemticaI120H <= 38.5\nentropy = 0.9593\nsamples = 110\nvalue = [42, 68]", fillcolor="#399de561"] ;
12 -> 27 ;
37 [label="entropy = 0.9994\nsamples = 70\nvalue = [36, 34]", fillcolor="#e581390e"] ;
27 -> 37 ;
38 [label="entropy = 0.6098\nsamples = 40\nvalue = [6, 34]", fillcolor="#399de5d2"] ;
27 -> 38 ;
28 [label="entropy = 0.0\nsamples = 20\nvalue = [0, 20]", fillcolor="#399de5ff"] ;
12 -> 28 ;
10 [label="cep <= 59379000.0\nentropy = 0.8593\nsamples = 198\nvalue = [56, 142]", fillcolor="#399de59a"] ;
1 -> 10 ;
19 [label="percentual_frequencia <= 65.5\nentropy = 0.9902\nsamples = 86\nvalue = [38, 48]", fillcolor="#399de535"] ;
10 -> 19 ;
21 [label="entropy = 0.258\nsamples = 23\nvalue = [1, 22]", fillcolor="#399de5f3"] ;
19 -> 21 ;
22 [label="entropy = 0.9779\nsamples = 63\nvalue = [37, 26]", fillcolor="#e581394c"] ;
19 -> 22 ;
20 [label="cep <= 59684000.0\nentropy = 0.636\nsamples = 112\nvalue = [18, 94]", fillcolor="#399de5ce"] ;
10 -> 20 ;
23 [label="percentual_frequencia <= 99.5\nentropy = 0.5336\nsamples = 107\nvalue = [13, 94]", fillcolor="#399de5dc"] ;
20 -> 23 ;
31 [label="cep <= 59555000.0\nentropy = 0.8366\nsamples = 45\nvalue = [12, 33]", fillcolor="#399de5a2"] ;
23 -> 31 ;
33 [label="entropy = 0.5618\nsamples = 38\nvalue = [5, 33]", fillcolor="#399de5d8"] ;
31 -> 33 ;
34 [label="entropy = 0.0\nsamples = 7\nvalue = [7, 0]", fillcolor="#e58139ff"] ;
31 -> 34 ;
32 [label="entropy = 0.1191\nsamples = 62\nvalue = [1, 61]", fillcolor="#399de5fb"] ;
23 -> 32 ;
24 [label="entropy = 0.0\nsamples = 5\nvalue = [5, 0]", fillcolor="#e58139ff"] ;
20 -> 24 ;
2 [label="LnguaPortuguesaeLiteraturaII90H <= 56.5\nentropy = 0.1942\nsamples = 4941\nvalue = [148, 4793]", fillcolor="#399de5f7"] ;
0 -> 2 [labeldistance=2.5, labelangle=-45, headlabel="False"] ;
3 [label="ano_letivo__ano_matricula_periodo <= 2015.5\nentropy = 0.3091\nsamples = 2489\nvalue = [138, 2351]", fillcolor="#399de5f0"] ;
2 -> 3 ;
5 [label="MatemticaII90H <= 35.5\nentropy = 0.9999\nsamples = 162\nvalue = [80, 82]", fillcolor="#399de506"] ;
3 -> 5 ;
25 [label="entropy = 0.9817\nsamples = 126\nvalue = [73, 53]", fillcolor="#e5813946"] ;
5 -> 25 ;
26 [label="entropy = 0.7107\nsamples = 36\nvalue = [7, 29]", fillcolor="#399de5c1"] ;
5 -> 26 ;
6 [label="MatemticaI120H <= 27.5\nentropy = 0.1683\nsamples = 2327\nvalue = [58, 2269]", fillcolor="#399de5f8"] ;
3 -> 6 ;
7 [label="percentual_frequencia <= 77.5\nentropy = 0.54\nsamples = 299\nvalue = [37, 262]", fillcolor="#399de5db"] ;
6 -> 7 ;
17 [label="entropy = 0.9624\nsamples = 44\nvalue = [17, 27]", fillcolor="#399de55e"] ;
7 -> 17 ;
18 [label="entropy = 0.3966\nsamples = 255\nvalue = [20, 235]", fillcolor="#399de5e9"] ;
7 -> 18 ;
8 [label="MatemticaII90H <= -0.5\nentropy = 0.0831\nsamples = 2028\nvalue = [21, 2007]", fillcolor="#399de5fc"] ;
6 -> 8 ;
13 [label="entropy = 0.0606\nsamples = 1985\nvalue = [14, 1971]", fillcolor="#399de5fd"] ;
8 -> 13 ;
14 [label="entropy = 0.6409\nsamples = 43\nvalue = [7, 36]", fillcolor="#399de5cd"] ;
8 -> 14 ;
4 [label="entropy = 0.0382\nsamples = 2452\nvalue = [10, 2442]", fillcolor="#399de5fe"] ;
2 -> 4 ;
}