digraph Tree {
node [shape=box, style="filled, rounded", color="black", fontname=helvetica] ;
edge [fontname=helvetica] ;
0 [label="LnguaPortuguesaeLiteraturaI90H <= 46.5\nentropy = 0.4236\nsamples = 5592\nvalue = [482, 5110]", fillcolor="#399de5e7"] ;
1 [label="ano_letivo__ano_matricula_periodo <= 2016.5\nentropy = 0.9982\nsamples = 581\nvalue = [305, 276]", fillcolor="#e5813918"] ;
0 -> 1 [labeldistance=2.5, labelangle=45, headlabel="True"] ;
7 [label="MatemticaI120H <= 38.5\nentropy = 0.9471\nsamples = 416\nvalue = [264, 152]", fillcolor="#e581396c"] ;
1 -> 7 ;
9 [label="LnguaPortuguesaeLiteraturaI90H <= 19.5\nentropy = 0.8621\nsamples = 358\nvalue = [256, 102]", fillcolor="#e5813999"] ;
7 -> 9 ;
13 [label="entropy = 0.5993\nsamples = 192\nvalue = [164, 28]", fillcolor="#e58139d3"] ;
9 -> 13 ;
14 [label="entropy = 0.9915\nsamples = 166\nvalue = [92, 74]", fillcolor="#e5813932"] ;
9 -> 14 ;
10 [label="ano_letivo__ano_matricula_periodo <= 2015.5\nentropy = 0.5788\nsamples = 58\nvalue = [8, 50]", fillcolor="#399de5d6"] ;
7 -> 10 ;
25 [label="entropy = 0.9495\nsamples = 19\nvalue = [7, 12]", fillcolor="#399de56a"] ;
10 -> 25 ;
26 [label="entropy = 0.172\nsamples = 39\nvalue = [1, 38]", fillcolor="#399de5f8"] ;
10 -> 26 ;
8 [label="cep <= 59379000.0\nentropy = 0.8089\nsamples = 165\nvalue = [41, 124]", fillcolor="#399de5ab"] ;
1 -> 8 ;
17 [label="MatemticaI120H <= 2.0\nentropy = 0.9984\nsamples = 63\nvalue = [30, 33]", fillcolor="#399de517"] ;
8 -> 17 ;
27 [label="entropy = 0.8631\nsamples = 28\nvalue = [20, 8]", fillcolor="#e5813999"] ;
17 -> 27 ;
28 [label="entropy = 0.8631\nsamples = 35\nvalue = [10, 25]", fillcolor="#399de599"] ;
17 -> 28 ;
18 [label="cep <= 59684000.0\nentropy = 0.4934\nsamples = 102\nvalue = [11, 91]", fillcolor="#399de5e0"] ;
8 -> 18 ;
21 [label="entropy = 0.3712\nsamples = 98\nvalue = [7, 91]", fillcolor="#399de5eb"] ;
18 -> 21 ;
22 [label="entropy = 0.0\nsamples = 4\nvalue = [4, 0]", fillcolor="#e58139ff"] ;
18 -> 22 ;
2 [label="LnguaPortuguesaeLiteraturaII90H <= 56.5\nentropy = 0.2204\nsamples = 5011\nvalue = [177, 4834]", fillcolor="#399de5f6"] ;
0 -> 2 [labeldistance=2.5, labelangle=-45, headlabel="False"] ;
3 [label="ano_letivo__ano_matricula_periodo <= 2015.5\nentropy = 0.3369\nsamples = 2548\nvalue = [159, 2389]", fillcolor="#399de5ee"] ;
2 -> 3 ;
5 [label="LnguaPortuguesaeLiteraturaII90H <= 30.5\nentropy = 0.9904\nsamples = 208\nvalue = [116, 92]", fillcolor="#e5813935"] ;
3 -> 5 ;
19 [label="entropy = 0.916\nsamples = 145\nvalue = [97, 48]", fillcolor="#e5813981"] ;
5 -> 19 ;
20 [label="entropy = 0.8832\nsamples = 63\nvalue = [19, 44]", fillcolor="#399de591"] ;
5 -> 20 ;
6 [label="ano_letivo__ano_matricula_periodo <= 2016.5\nentropy = 0.1322\nsamples = 2340\nvalue = [43, 2297]", fillcolor="#399de5fa"] ;
3 -> 6 ;
11 [label="entropy = 0.2083\nsamples = 1280\nvalue = [42, 1238]", fillcolor="#399de5f6"] ;
6 -> 11 ;
12 [label="entropy = 0.0108\nsamples = 1060\nvalue = [1, 1059]", fillcolor="#399de5ff"] ;
6 -> 12 ;
4 [label="ano_letivo__ano_matricula_periodo <= 2013.5\nentropy = 0.0624\nsamples = 2463\nvalue = [18, 2445]", fillcolor="#399de5fd"] ;
2 -> 4 ;
15 [label="MatemticaI120H <= 62.5\nentropy = 0.9183\nsamples = 18\nvalue = [6, 12]", fillcolor="#399de57f"] ;
4 -> 15 ;
29 [label="entropy = 0.8113\nsamples = 4\nvalue = [3, 1]", fillcolor="#e58139aa"] ;
15 -> 29 ;
30 [label="entropy = 0.7496\nsamples = 14\nvalue = [3, 11]", fillcolor="#399de5b9"] ;
15 -> 30 ;
16 [label="MatemticaII90H <= 63.5\nentropy = 0.0447\nsamples = 2445\nvalue = [12, 2433]", fillcolor="#399de5fe"] ;
4 -> 16 ;
23 [label="entropy = 0.0961\nsamples = 809\nvalue = [10, 799]", fillcolor="#399de5fc"] ;
16 -> 23 ;
24 [label="entropy = 0.0136\nsamples = 1636\nvalue = [2, 1634]", fillcolor="#399de5ff"] ;
16 -> 24 ;
}