digraph Tree {
node [shape=box, style="filled, rounded", color="black", fontname=helvetica] ;
edge [fontname=helvetica] ;
0 [label="LnguaPortuguesaeLiteraturaI90H <= 49.5\nentropy = 0.5272\nsamples = 4796\nvalue = [572, 4224]", fillcolor="#399de5dc"] ;
1 [label="MatemticaI120H <= 38.5\nentropy = 0.9964\nsamples = 613\nvalue = [328, 285]", fillcolor="#e5813921"] ;
0 -> 1 [labeldistance=2.5, labelangle=45, headlabel="True"] ;
9 [label="ano_letivo__ano <= 2015.5\nentropy = 0.9731\nsamples = 530\nvalue = [316, 214]", fillcolor="#e5813952"] ;
1 -> 9 ;
11 [label="LnguaPortuguesaeLiteraturaI90H <= 18.5\nentropy = 0.6707\nsamples = 165\nvalue = [136, 29]", fillcolor="#e58139c9"] ;
9 -> 11 ;
19 [label="entropy = 0.2975\nsamples = 76\nvalue = [72, 4]", fillcolor="#e58139f1"] ;
11 -> 19 ;
20 [label="entropy = 0.8567\nsamples = 89\nvalue = [64, 25]", fillcolor="#e581399b"] ;
11 -> 20 ;
12 [label="LnguaPortuguesaeLiteraturaI90H <= 35.5\nentropy = 0.9999\nsamples = 365\nvalue = [180, 185]", fillcolor="#399de507"] ;
9 -> 12 ;
13 [label="ano_letivo__ano_matricula_periodo <= 2016.5\nentropy = 0.9921\nsamples = 297\nvalue = [164, 133]", fillcolor="#e5813930"] ;
12 -> 13 ;
15 [label="LnguaPortuguesaeLiteraturaI90H <= 18.5\nentropy = 0.9021\nsamples = 195\nvalue = [133, 62]", fillcolor="#e5813988"] ;
13 -> 15 ;
31 [label="entropy = 0.7805\nsamples = 121\nvalue = [93, 28]", fillcolor="#e58139b2"] ;
15 -> 31 ;
32 [label="entropy = 0.9953\nsamples = 74\nvalue = [40, 34]", fillcolor="#e5813926"] ;
15 -> 32 ;
16 [label="LnguaPortuguesaeLiteraturaI90H <= 3.0\nentropy = 0.886\nsamples = 102\nvalue = [31, 71]", fillcolor="#399de590"] ;
13 -> 16 ;
27 [label="entropy = 0.8274\nsamples = 96\nvalue = [25, 71]", fillcolor="#399de5a5"] ;
16 -> 27 ;
28 [label="entropy = 0.0\nsamples = 6\nvalue = [6, 0]", fillcolor="#e58139ff"] ;
16 -> 28 ;
14 [label="entropy = 0.7871\nsamples = 68\nvalue = [16, 52]", fillcolor="#399de5b1"] ;
12 -> 14 ;
10 [label="ano_letivo__ano_matricula_periodo <= 2015.5\nentropy = 0.5961\nsamples = 83\nvalue = [12, 71]", fillcolor="#399de5d4"] ;
1 -> 10 ;
33 [label="MatemticaII90H <= 30.5\nentropy = 0.9321\nsamples = 23\nvalue = [8, 15]", fillcolor="#399de577"] ;
10 -> 33 ;
35 [label="entropy = 0.9852\nsamples = 14\nvalue = [8, 6]", fillcolor="#e5813940"] ;
33 -> 35 ;
36 [label="entropy = 0.0\nsamples = 9\nvalue = [0, 9]", fillcolor="#399de5ff"] ;
33 -> 36 ;
34 [label="entropy = 0.3534\nsamples = 60\nvalue = [4, 56]", fillcolor="#399de5ed"] ;
10 -> 34 ;
2 [label="LnguaPortuguesaeLiteraturaII90H <= 58.5\nentropy = 0.3208\nsamples = 4183\nvalue = [244, 3939]", fillcolor="#399de5ef"] ;
0 -> 2 [labeldistance=2.5, labelangle=-45, headlabel="False"] ;
3 [label="ano_letivo__ano_matricula_periodo <= 2015.5\nentropy = 0.4263\nsamples = 2518\nvalue = [219, 2299]", fillcolor="#399de5e7"] ;
2 -> 3 ;
5 [label="MatemticaI120H <= 3.0\nentropy = 0.946\nsamples = 434\nvalue = [158, 276]", fillcolor="#399de56d"] ;
3 -> 5 ;
17 [label="entropy = 0.0\nsamples = 18\nvalue = [0, 18]", fillcolor="#399de5ff"] ;
5 -> 17 ;
18 [label="MatemticaII90H <= 46.5\nentropy = 0.9579\nsamples = 416\nvalue = [158, 258]", fillcolor="#399de563"] ;
5 -> 18 ;
23 [label="MatemticaII90H <= -0.5\nentropy = 0.9751\nsamples = 378\nvalue = [154, 224]", fillcolor="#399de550"] ;
18 -> 23 ;
25 [label="entropy = 0.9143\nsamples = 255\nvalue = [84, 171]", fillcolor="#399de582"] ;
23 -> 25 ;
26 [label="entropy = 0.9862\nsamples = 123\nvalue = [70, 53]", fillcolor="#e581393e"] ;
23 -> 26 ;
24 [label="entropy = 0.4855\nsamples = 38\nvalue = [4, 34]", fillcolor="#399de5e1"] ;
18 -> 24 ;
6 [label="MatemticaII90H <= -0.5\nentropy = 0.1907\nsamples = 2084\nvalue = [61, 2023]", fillcolor="#399de5f7"] ;
3 -> 6 ;
7 [label="MatemticaI120H <= 42.5\nentropy = 0.1303\nsamples = 2051\nvalue = [37, 2014]", fillcolor="#399de5fa"] ;
6 -> 7 ;
21 [label="entropy = 0.2722\nsamples = 364\nvalue = [17, 347]", fillcolor="#399de5f3"] ;
7 -> 21 ;
22 [label="qtd_pessoas_domicilio <= 0.5\nentropy = 0.0929\nsamples = 1687\nvalue = [20, 1667]", fillcolor="#399de5fc"] ;
7 -> 22 ;
37 [label="entropy = 0.0\nsamples = 1\nvalue = [1, 0]", fillcolor="#e58139ff"] ;
22 -> 37 ;
38 [label="entropy = 0.0891\nsamples = 1686\nvalue = [19, 1667]", fillcolor="#399de5fc"] ;
22 -> 38 ;
8 [label="entropy = 0.8454\nsamples = 33\nvalue = [24, 9]", fillcolor="#e581399f"] ;
6 -> 8 ;
4 [label="ano_letivo__ano_matricula_periodo <= 2013.5\nentropy = 0.1125\nsamples = 1665\nvalue = [25, 1640]", fillcolor="#399de5fb"] ;
2 -> 4 ;
29 [label="entropy = 0.7496\nsamples = 14\nvalue = [3, 11]", fillcolor="#399de5b9"] ;
4 -> 29 ;
30 [label="entropy = 0.1021\nsamples = 1651\nvalue = [22, 1629]", fillcolor="#399de5fc"] ;
4 -> 30 ;
}