digraph Tree {
node [shape=box, style="filled, rounded", color="black", fontname=helvetica] ;
edge [fontname=helvetica] ;
0 [label="classe <= 0.5\ngini = 0.2066\nsamples = 6395\nvalue = [748, 5647]", fillcolor="#399de5dd"] ;
1 [label="gini = 0.0\nsamples = 748\nvalue = [748, 0]", fillcolor="#e58139ff"] ;
0 -> 1 [labeldistance=2.5, labelangle=45, headlabel="True"] ;
2 [label="gini = 0.0\nsamples = 5647\nvalue = [0, 5647]", fillcolor="#399de5ff"] ;
0 -> 2 [labeldistance=2.5, labelangle=-45, headlabel="False"] ;
}