digraph Tree {
node [shape=box, style="filled, rounded", color="black", fontname=helvetica] ;
edge [fontname=helvetica] ;
0 [label="LnguaPortuguesaeLiteraturaI90H <= 49.5\nentropy = 0.5272\nsamples = 4796\nvalue = [572, 4224]", fillcolor="#399de5dc"] ;
1 [label="MatemticaI120H <= 38.5\nentropy = 0.9964\nsamples = 613\nvalue = [328, 285]", fillcolor="#e5813921"] ;
0 -> 1 [labeldistance=2.5, labelangle=45, headlabel="True"] ;
9 [label="LnguaPortuguesaeLiteraturaI90H <= 35.5\nentropy = 0.9731\nsamples = 530\nvalue = [316, 214]", fillcolor="#e5813952"] ;
1 -> 9 ;
13 [label="LnguaPortuguesaeLiteraturaI90H <= 1.5\nentropy = 0.9393\nsamples = 427\nvalue = [275, 152]", fillcolor="#e5813972"] ;
9 -> 13 ;
21 [label="entropy = 0.9869\nsamples = 208\nvalue = [118, 90]", fillcolor="#e581393d"] ;
13 -> 21 ;
22 [label="LnguaPortuguesaeLiteraturaI90H <= 19.5\nentropy = 0.8596\nsamples = 219\nvalue = [157, 62]", fillcolor="#e581399a"] ;
13 -> 22 ;
23 [label="MatemticaI120H <= 1.5\nentropy = 0.6174\nsamples = 98\nvalue = [83, 15]", fillcolor="#e58139d1"] ;
22 -> 23 ;
35 [label="entropy = 0.0\nsamples = 15\nvalue = [15, 0]", fillcolor="#e58139ff"] ;
23 -> 35 ;
36 [label="entropy = 0.6817\nsamples = 83\nvalue = [68, 15]", fillcolor="#e58139c7"] ;
23 -> 36 ;
24 [label="MatemticaI120H <= 29.5\nentropy = 0.9638\nsamples = 121\nvalue = [74, 47]", fillcolor="#e581395d"] ;
22 -> 24 ;
25 [label="entropy = 0.9893\nsamples = 107\nvalue = [60, 47]", fillcolor="#e5813937"] ;
24 -> 25 ;
26 [label="entropy = 0.0\nsamples = 14\nvalue = [14, 0]", fillcolor="#e58139ff"] ;
24 -> 26 ;
14 [label="entropy = 0.9698\nsamples = 103\nvalue = [41, 62]", fillcolor="#399de556"] ;
9 -> 14 ;
10 [label="entropy = 0.5961\nsamples = 83\nvalue = [12, 71]", fillcolor="#399de5d4"] ;
1 -> 10 ;
2 [label="LnguaPortuguesaeLiteraturaII90H <= 58.5\nentropy = 0.3208\nsamples = 4183\nvalue = [244, 3939]", fillcolor="#399de5ef"] ;
0 -> 2 [labeldistance=2.5, labelangle=-45, headlabel="False"] ;
3 [label="LnguaPortuguesaeLiteraturaII90H <= -0.5\nentropy = 0.4263\nsamples = 2518\nvalue = [219, 2299]", fillcolor="#399de5e7"] ;
2 -> 3 ;
5 [label="MatemticaI120H <= 56.5\nentropy = 0.2953\nsamples = 2322\nvalue = [121, 2201]", fillcolor="#399de5f1"] ;
3 -> 5 ;
7 [label="MatemticaI120H <= 2.5\nentropy = 0.5175\nsamples = 673\nvalue = [78, 595]", fillcolor="#399de5de"] ;
5 -> 7 ;
15 [label="entropy = 0.0\nsamples = 75\nvalue = [0, 75]", fillcolor="#399de5ff"] ;
7 -> 15 ;
16 [label="MatemticaI120H <= 29.5\nentropy = 0.5586\nsamples = 598\nvalue = [78, 520]", fillcolor="#399de5d9"] ;
7 -> 16 ;
33 [label="entropy = 0.653\nsamples = 256\nvalue = [43, 213]", fillcolor="#399de5cc"] ;
16 -> 33 ;
34 [label="entropy = 0.4764\nsamples = 342\nvalue = [35, 307]", fillcolor="#399de5e2"] ;
16 -> 34 ;
8 [label="LnguaPortuguesaeLiteraturaI90H <= 65.5\nentropy = 0.1743\nsamples = 1649\nvalue = [43, 1606]", fillcolor="#399de5f8"] ;
5 -> 8 ;
27 [label="entropy = 0.2785\nsamples = 353\nvalue = [17, 336]", fillcolor="#399de5f2"] ;
8 -> 27 ;
28 [label="LnguaPortuguesaeLiteraturaI90H <= 71.5\nentropy = 0.1418\nsamples = 1296\nvalue = [26, 1270]", fillcolor="#399de5fa"] ;
8 -> 28 ;
29 [label="entropy = 0.0348\nsamples = 274\nvalue = [1, 273]", fillcolor="#399de5fe"] ;
28 -> 29 ;
30 [label="entropy = 0.1658\nsamples = 1022\nvalue = [25, 997]", fillcolor="#399de5f9"] ;
28 -> 30 ;
6 [label="LnguaPortuguesaeLiteraturaII90H <= 38.5\nentropy = 1.0\nsamples = 196\nvalue = [98, 98]", fillcolor="#e5813900"] ;
3 -> 6 ;
11 [label="MatemticaII90H <= 46.5\nentropy = 0.9407\nsamples = 137\nvalue = [88, 49]", fillcolor="#e5813971"] ;
6 -> 11 ;
17 [label="MatemticaI120H <= 67.5\nentropy = 0.8955\nsamples = 125\nvalue = [86, 39]", fillcolor="#e581398b"] ;
11 -> 17 ;
19 [label="entropy = 0.9591\nsamples = 97\nvalue = [60, 37]", fillcolor="#e5813962"] ;
17 -> 19 ;
20 [label="entropy = 0.3712\nsamples = 28\nvalue = [26, 2]", fillcolor="#e58139eb"] ;
17 -> 20 ;
18 [label="entropy = 0.65\nsamples = 12\nvalue = [2, 10]", fillcolor="#399de5cc"] ;
11 -> 18 ;
12 [label="MatemticaII90H <= 53.0\nentropy = 0.6565\nsamples = 59\nvalue = [10, 49]", fillcolor="#399de5cb"] ;
6 -> 12 ;
37 [label="entropy = 0.8113\nsamples = 36\nvalue = [9, 27]", fillcolor="#399de5aa"] ;
12 -> 37 ;
38 [label="entropy = 0.258\nsamples = 23\nvalue = [1, 22]", fillcolor="#399de5f3"] ;
12 -> 38 ;
4 [label="LnguaPortuguesaeLiteraturaI90H <= 98.5\nentropy = 0.1125\nsamples = 1665\nvalue = [25, 1640]", fillcolor="#399de5fb"] ;
2 -> 4 ;
31 [label="entropy = 0.1057\nsamples = 1653\nvalue = [23, 1630]", fillcolor="#399de5fb"] ;
4 -> 31 ;
32 [label="entropy = 0.65\nsamples = 12\nvalue = [2, 10]", fillcolor="#399de5cc"] ;
4 -> 32 ;
}