digraph Tree {
node [shape=box, style="filled, rounded", color="black", fontname=helvetica] ;
edge [fontname=helvetica] ;
0 [label="descricao_Matriculado <= 0.5\ngini = 0.2066\nsamples = 6395\nvalue = [748, 5647]", fillcolor="#399de5dd"] ;
1 [label="descricao_Trancado Voluntariamente <= 0.5\ngini = 0.0602\nsamples = 772\nvalue = [748, 24]", fillcolor="#e58139f7"] ;
0 -> 1 [labeldistance=2.5, labelangle=45, headlabel="True"] ;
2 [label="descricao_Trancado <= 0.5\ngini = 0.0184\nsamples = 755\nvalue = [748, 7]", fillcolor="#e58139fd"] ;
1 -> 2 ;
3 [label="descricao_Concluído <= 0.5\ngini = 0.0106\nsamples = 752\nvalue = [748, 4]", fillcolor="#e58139fe"] ;
2 -> 3 ;
4 [label="descricao_Matrícula Vínculo Institucional <= 0.5\ngini = 0.0053\nsamples = 750\nvalue = [748, 2]", fillcolor="#e58139fe"] ;
3 -> 4 ;
5 [label="descricao_Intercâmbio <= 0.5\ngini = 0.0027\nsamples = 749\nvalue = [748, 1]", fillcolor="#e58139ff"] ;
4 -> 5 ;
6 [label="gini = 0.0\nsamples = 748\nvalue = [748, 0]", fillcolor="#e58139ff"] ;
5 -> 6 ;
7 [label="gini = 0.0\nsamples = 1\nvalue = [0, 1]", fillcolor="#399de5ff"] ;
5 -> 7 ;
8 [label="gini = 0.0\nsamples = 1\nvalue = [0, 1]", fillcolor="#399de5ff"] ;
4 -> 8 ;
9 [label="gini = 0.0\nsamples = 2\nvalue = [0, 2]", fillcolor="#399de5ff"] ;
3 -> 9 ;
10 [label="gini = 0.0\nsamples = 3\nvalue = [0, 3]", fillcolor="#399de5ff"] ;
2 -> 10 ;
11 [label="gini = 0.0\nsamples = 17\nvalue = [0, 17]", fillcolor="#399de5ff"] ;
1 -> 11 ;
12 [label="gini = 0.0\nsamples = 5623\nvalue = [0, 5623]", fillcolor="#399de5ff"] ;
0 -> 12 [labeldistance=2.5, labelangle=-45, headlabel="False"] ;
}